digraph Tree {
node [shape=box, style="filled, rounded", color="black", fontname=helvetica] ;
edge [fontname=helvetica] ;
0 [label="Column_1 <= 5.0\nmse = 0.07\nsamples = 152\nvalue = 0.613", fillcolor="#e5813983"] ;
1 [label="Mg Loading <= 0.015\nmse = 0.034\nsamples = 82\nvalue = 0.8", fillcolor="#e58139c3"] ;
0 -> 1 [labeldistance=2.5, labelangle=45, headlabel="True"] ;
2 [label="Ca Loading <= 0.025\nmse = 0.02\nsamples = 70\nvalue = 0.855", fillcolor="#e58139d6"] ;
1 -> 2 ;
3 [label="Sc Loading <= 0.015\nmse = 0.012\nsamples = 67\nvalue = 0.874", fillcolor="#e58139dc"] ;
2 -> 3 ;
4 [label="Ru Loading <= 0.015\nmse = 0.005\nsamples = 61\nvalue = 0.898", fillcolor="#e58139e5"] ;
3 -> 4 ;
5 [label="ammonia_concentration <= 0.014\nmse = 0.004\nsamples = 14\nvalue = 0.823", fillcolor="#e58139cb"] ;
4 -> 5 ;
6 [label="FusionEnthalpy_1 <= 19.295\nmse = 0.001\nsamples = 8\nvalue = 0.772", fillcolor="#e58139b9"] ;
5 -> 6 ;
7 [label="mse = 0.001\nsamples = 5\nvalue = 0.794", fillcolor="#e58139c1"] ;
6 -> 7 ;
8 [label="mse = 0.0\nsamples = 3\nvalue = 0.734", fillcolor="#e58139ac"] ;
6 -> 8 ;
9 [label="mse = 0.0\nsamples = 6\nvalue = 0.892", fillcolor="#e58139e2"] ;
5 -> 9 ;
10 [label="reactor_number <= 10.5\nmse = 0.004\nsamples = 47\nvalue = 0.921", fillcolor="#e58139ec"] ;
4 -> 10 ;
11 [label="GSenergy_pa_1 <= -8.209\nmse = 0.001\nsamples = 30\nvalue = 0.948", fillcolor="#e58139f6"] ;
10 -> 11 ;
12 [label="mse = 0.0\nsamples = 3\nvalue = 0.867", fillcolor="#e58139da"] ;
11 -> 12 ;
13 [label="HeatCapacityMass_1 <= 0.796\nmse = 0.0\nsamples = 27\nvalue = 0.957", fillcolor="#e58139f9"] ;
11 -> 13 ;
14 [label="ZungerPP-r_p_1 <= 1.575\nmse = 0.0\nsamples = 21\nvalue = 0.952", fillcolor="#e58139f7"] ;
13 -> 14 ;
15 [label="mse = 0.0\nsamples = 3\nvalue = 0.932", fillcolor="#e58139f0"] ;
14 -> 15 ;
16 [label="space_velocity <= 1966.606\nmse = 0.0\nsamples = 18\nvalue = 0.955", fillcolor="#e58139f8"] ;
14 -> 16 ;
17 [label="mse = 0.0\nsamples = 6\nvalue = 0.949", fillcolor="#e58139f6"] ;
16 -> 17 ;
18 [label="Y Loading <= 0.012\nmse = 0.0\nsamples = 12\nvalue = 0.958", fillcolor="#e58139f9"] ;
16 -> 18 ;
19 [label="mse = 0.0\nsamples = 6\nvalue = 0.957", fillcolor="#e58139f9"] ;
18 -> 19 ;
20 [label="mse = 0.0\nsamples = 6\nvalue = 0.959", fillcolor="#e58139f9"] ;
18 -> 20 ;
21 [label="mse = 0.0\nsamples = 6\nvalue = 0.975", fillcolor="#e58139ff"] ;
13 -> 21 ;
22 [label="Density_1 <= 8147.5\nmse = 0.005\nsamples = 17\nvalue = 0.873", fillcolor="#e58139dc"] ;
10 -> 22 ;
23 [label="ammonia_concentration <= 0.013\nmse = 0.004\nsamples = 14\nvalue = 0.854", fillcolor="#e58139d6"] ;
22 -> 23 ;
24 [label="CovalentRadius_1 <= 155.5\nmse = 0.003\nsamples = 11\nvalue = 0.837", fillcolor="#e58139d0"] ;
23 -> 24 ;
25 [label="mse = 0.004\nsamples = 5\nvalue = 0.872", fillcolor="#e58139dc"] ;
24 -> 25 ;
26 [label="GSenergy_pa_1 <= -4.117\nmse = 0.0\nsamples = 6\nvalue = 0.807", fillcolor="#e58139c5"] ;
24 -> 26 ;
27 [label="mse = 0.0\nsamples = 3\nvalue = 0.821", fillcolor="#e58139ca"] ;
26 -> 27 ;
28 [label="mse = 0.0\nsamples = 3\nvalue = 0.793", fillcolor="#e58139c1"] ;
26 -> 28 ;
29 [label="mse = 0.0\nsamples = 3\nvalue = 0.919", fillcolor="#e58139ec"] ;
23 -> 29 ;
30 [label="mse = 0.0\nsamples = 3\nvalue = 0.959", fillcolor="#e58139fa"] ;
22 -> 30 ;
31 [label="space_velocity <= 2210.586\nmse = 0.007\nsamples = 6\nvalue = 0.629", fillcolor="#e5813988"] ;
3 -> 31 ;
32 [label="mse = 0.0\nsamples = 3\nvalue = 0.547", fillcolor="#e581396c"] ;
31 -> 32 ;
33 [label="mse = 0.0\nsamples = 3\nvalue = 0.712", fillcolor="#e58139a5"] ;
31 -> 33 ;
34 [label="mse = 0.0\nsamples = 3\nvalue = 0.414", fillcolor="#e581393f"] ;
2 -> 34 ;
35 [label="space_velocity <= 2246.106\nmse = 0.0\nsamples = 12\nvalue = 0.481", fillcolor="#e5813956"] ;
1 -> 35 ;
36 [label="mse = 0.0\nsamples = 6\nvalue = 0.484", fillcolor="#e5813957"] ;
35 -> 36 ;
37 [label="mse = 0.0\nsamples = 6\nvalue = 0.477", fillcolor="#e5813954"] ;
35 -> 37 ;
38 [label="Ru Loading <= 0.025\nmse = 0.022\nsamples = 70\nvalue = 0.395", fillcolor="#e5813938"] ;
0 -> 38 [labeldistance=2.5, labelangle=-45, headlabel="False"] ;
39 [label="MeltingT_1 <= 1438.385\nmse = 0.008\nsamples = 42\nvalue = 0.322", fillcolor="#e581391f"] ;
38 -> 39 ;
40 [label="In Loading <= 0.025\nmse = 0.003\nsamples = 18\nvalue = 0.268", fillcolor="#e581390d"] ;
39 -> 40 ;
41 [label="space_velocity <= 2184.69\nmse = 0.003\nsamples = 15\nvalue = 0.258", fillcolor="#e5813909"] ;
40 -> 41 ;
42 [label="mse = 0.006\nsamples = 6\nvalue = 0.244", fillcolor="#e5813905"] ;
41 -> 42 ;
43 [label="NsValence_1 <= 1.5\nmse = 0.001\nsamples = 9\nvalue = 0.267", fillcolor="#e581390c"] ;
41 -> 43 ;
44 [label="mse = 0.002\nsamples = 6\nvalue = 0.262", fillcolor="#e581390b"] ;
43 -> 44 ;
45 [label="mse = 0.0\nsamples = 3\nvalue = 0.276", fillcolor="#e581390f"] ;
43 -> 45 ;
46 [label="mse = 0.0\nsamples = 3\nvalue = 0.323", fillcolor="#e581391f"] ;
40 -> 46 ;
47 [label="Ru Loading <= 0.015\nmse = 0.008\nsamples = 24\nvalue = 0.363", fillcolor="#e581392d"] ;
39 -> 47 ;
48 [label="NValence_1 <= 8.5\nmse = 0.002\nsamples = 11\nvalue = 0.286", fillcolor="#e5813913"] ;
47 -> 48 ;
49 [label="FusionEnthalpy_1 <= 16.955\nmse = 0.001\nsamples = 6\nvalue = 0.252", fillcolor="#e5813907"] ;
48 -> 49 ;
50 [label="mse = 0.001\nsamples = 3\nvalue = 0.274", fillcolor="#e581390f"] ;
49 -> 50 ;
51 [label="mse = 0.001\nsamples = 3\nvalue = 0.231", fillcolor="#e5813900"] ;
49 -> 51 ;
52 [label="mse = 0.001\nsamples = 5\nvalue = 0.327", fillcolor="#e5813921"] ;
48 -> 52 ;
53 [label="IonizationEnergies_3_1 <= 32.314\nmse = 0.004\nsamples = 13\nvalue = 0.427", fillcolor="#e5813943"] ;
47 -> 53 ;
54 [label="mse = 0.002\nsamples = 5\nvalue = 0.364", fillcolor="#e581392e"] ;
53 -> 54 ;
55 [label="ZungerPP-r_s_1 <= 0.975\nmse = 0.002\nsamples = 8\nvalue = 0.467", fillcolor="#e5813951"] ;
53 -> 55 ;
56 [label="mse = 0.003\nsamples = 5\nvalue = 0.461", fillcolor="#e581394f"] ;
55 -> 56 ;
57 [label="mse = 0.001\nsamples = 3\nvalue = 0.477", fillcolor="#e5813954"] ;
55 -> 57 ;
58 [label="Cu Loading <= -0.495\nmse = 0.024\nsamples = 28\nvalue = 0.504", fillcolor="#e581395e"] ;
38 -> 58 ;
59 [label="reactor_number <= 8.0\nmse = 0.01\nsamples = 22\nvalue = 0.558", fillcolor="#e5813970"] ;
58 -> 59 ;
60 [label="IonizationEnergies_3_1 <= 33.075\nmse = 0.003\nsamples = 8\nvalue = 0.654", fillcolor="#e5813991"] ;
59 -> 60 ;
61 [label="mse = 0.001\nsamples = 5\nvalue = 0.687", fillcolor="#e581399c"] ;
60 -> 61 ;
62 [label="mse = 0.0\nsamples = 3\nvalue = 0.597", fillcolor="#e581397e"] ;
60 -> 62 ;
63 [label="MeltingT_1 <= 974.375\nmse = 0.006\nsamples = 14\nvalue = 0.503", fillcolor="#e581395d"] ;
59 -> 63 ;
64 [label="mse = 0.001\nsamples = 3\nvalue = 0.458", fillcolor="#e581394e"] ;
63 -> 64 ;
65 [label="NdUnfilled_1 <= 3.5\nmse = 0.007\nsamples = 11\nvalue = 0.515", fillcolor="#e5813961"] ;
63 -> 65 ;
66 [label="mse = 0.01\nsamples = 5\nvalue = 0.52", fillcolor="#e5813963"] ;
65 -> 66 ;
67 [label="mse = 0.005\nsamples = 6\nvalue = 0.512", fillcolor="#e5813960"] ;
65 -> 67 ;
68 [label="mse = 0.024\nsamples = 6\nvalue = 0.308", fillcolor="#e581391a"] ;
58 -> 68 ;
}