digraph Tree {
node [shape=box, style="filled, rounded", color="black", fontname=helvetica] ;
edge [fontname=helvetica] ;
0 [label="temperature <= 275.0\nmse = 0.112\nsamples = 150\nvalue = 0.656", fillcolor="#e58139a1"] ;
1 [label="ammonia_concentration <= 1.085\nmse = 0.032\nsamples = 36\nvalue = 0.272", fillcolor="#e5813939"] ;
0 -> 1 [labeldistance=2.5, labelangle=45, headlabel="True"] ;
2 [label="IonizationEnergies_6_1 <= 109.73\nmse = 0.016\nsamples = 31\nvalue = 0.213", fillcolor="#e5813929"] ;
1 -> 2 ;
3 [label="NdUnfilled_1 <= 6.5\nmse = 0.005\nsamples = 24\nvalue = 0.167", fillcolor="#e581391c"] ;
2 -> 3 ;
4 [label="IonizationEnergies_3_1 <= 36.015\nmse = 0.003\nsamples = 21\nvalue = 0.15", fillcolor="#e5813917"] ;
3 -> 4 ;
5 [label="temperature <= 200.0\nmse = 0.003\nsamples = 14\nvalue = 0.165", fillcolor="#e581391c"] ;
4 -> 5 ;
6 [label="space_velocity <= 2054.0\nmse = 0.004\nsamples = 4\nvalue = 0.131", fillcolor="#e5813912"] ;
5 -> 6 ;
7 [label="mse = 0.004\nsamples = 2\nvalue = 0.063", fillcolor="#e5813900"] ;
6 -> 7 ;
8 [label="mse = 0.0\nsamples = 2\nvalue = 0.164", fillcolor="#e581391c"] ;
6 -> 8 ;
9 [label="reactor_number <= 7.5\nmse = 0.002\nsamples = 10\nvalue = 0.181", fillcolor="#e5813920"] ;
5 -> 9 ;
10 [label="ZungerPP-r_d_1 <= 0.24\nmse = 0.001\nsamples = 4\nvalue = 0.215", fillcolor="#e5813929"] ;
9 -> 10 ;
11 [label="mse = 0.001\nsamples = 2\nvalue = 0.19", fillcolor="#e5813922"] ;
10 -> 11 ;
12 [label="mse = 0.0\nsamples = 2\nvalue = 0.24", fillcolor="#e5813930"] ;
10 -> 12 ;
13 [label="space_velocity <= 2230.875\nmse = 0.001\nsamples = 6\nvalue = 0.152", fillcolor="#e5813918"] ;
9 -> 13 ;
14 [label="mse = 0.0\nsamples = 3\nvalue = 0.129", fillcolor="#e5813912"] ;
13 -> 14 ;
15 [label="mse = 0.0\nsamples = 3\nvalue = 0.183", fillcolor="#e5813921"] ;
13 -> 15 ;
16 [label="OxState 5_1 <= 0.5\nmse = 0.001\nsamples = 7\nvalue = 0.127", fillcolor="#e5813911"] ;
4 -> 16 ;
17 [label="mse = 0.001\nsamples = 3\nvalue = 0.091", fillcolor="#e5813907"] ;
16 -> 17 ;
18 [label="space_velocity <= 2615.461\nmse = 0.001\nsamples = 4\nvalue = 0.137", fillcolor="#e5813914"] ;
16 -> 18 ;
19 [label="mse = 0.0\nsamples = 2\nvalue = 0.161", fillcolor="#e581391b"] ;
18 -> 19 ;
20 [label="mse = 0.0\nsamples = 2\nvalue = 0.114", fillcolor="#e581390e"] ;
18 -> 20 ;
21 [label="mse = 0.001\nsamples = 3\nvalue = 0.303", fillcolor="#e5813941"] ;
3 -> 21 ;
22 [label="reactor_number <= 10.5\nmse = 0.022\nsamples = 7\nvalue = 0.363", fillcolor="#e5813952"] ;
2 -> 22 ;
23 [label="mse = 0.003\nsamples = 2\nvalue = 0.478", fillcolor="#e5813971"] ;
22 -> 23 ;
24 [label="space_velocity <= 2458.157\nmse = 0.009\nsamples = 5\nvalue = 0.226", fillcolor="#e581392c"] ;
22 -> 24 ;
25 [label="mse = 0.003\nsamples = 3\nvalue = 0.16", fillcolor="#e581391a"] ;
24 -> 25 ;
26 [label="mse = 0.002\nsamples = 2\nvalue = 0.325", fillcolor="#e5813947"] ;
24 -> 26 ;
27 [label="HeatCapacityMolar_1 <= 26.425\nmse = 0.014\nsamples = 5\nvalue = 0.55", fillcolor="#e5813985"] ;
1 -> 27 ;
28 [label="mse = 0.025\nsamples = 2\nvalue = 0.452", fillcolor="#e581396a"] ;
27 -> 28 ;
29 [label="mse = 0.004\nsamples = 3\nvalue = 0.592", fillcolor="#e5813990"] ;
27 -> 29 ;
30 [label="Column_1 <= 10.5\nmse = 0.073\nsamples = 114\nvalue = 0.782", fillcolor="#e58139c4"] ;
0 -> 30 [labeldistance=2.5, labelangle=-45, headlabel="False"] ;
31 [label="temperature <= 325.0\nmse = 0.036\nsamples = 83\nvalue = 0.869", fillcolor="#e58139db"] ;
30 -> 31 ;
32 [label="ammonia_concentration <= 1.014\nmse = 0.053\nsamples = 23\nvalue = 0.693", fillcolor="#e58139ab"] ;
31 -> 32 ;
33 [label="ElectronAffinity_1 <= 3.7\nmse = 0.013\nsamples = 7\nvalue = 0.5", fillcolor="#e5813977"] ;
32 -> 33 ;
34 [label="mse = 0.002\nsamples = 2\nvalue = 0.331", fillcolor="#e5813949"] ;
33 -> 34 ;
35 [label="Electronegativity_1 <= 2.055\nmse = 0.005\nsamples = 5\nvalue = 0.55", fillcolor="#e5813984"] ;
33 -> 35 ;
36 [label="mse = 0.001\nsamples = 3\nvalue = 0.52", fillcolor="#e581397c"] ;
35 -> 36 ;
37 [label="mse = 0.002\nsamples = 2\nvalue = 0.669", fillcolor="#e58139a5"] ;
35 -> 37 ;
38 [label="ZungerPP-r_p_1 <= 1.32\nmse = 0.043\nsamples = 16\nvalue = 0.798", fillcolor="#e58139c8"] ;
32 -> 38 ;
39 [label="mse = 0.013\nsamples = 3\nvalue = 0.347", fillcolor="#e581394d"] ;
38 -> 39 ;
40 [label="reactor_number <= 10.5\nmse = 0.014\nsamples = 13\nvalue = 0.863", fillcolor="#e58139da"] ;
38 -> 40 ;
41 [label="MeltingT_1 <= 2371.5\nmse = 0.005\nsamples = 10\nvalue = 0.919", fillcolor="#e58139e9"] ;
40 -> 41 ;
42 [label="ElectronAffinity_1 <= 23.85\nmse = 0.001\nsamples = 8\nvalue = 0.96", fillcolor="#e58139f4"] ;
41 -> 42 ;
43 [label="mse = 0.0\nsamples = 3\nvalue = 0.986", fillcolor="#e58139fb"] ;
42 -> 43 ;
44 [label="M1M2_ratio <= 200.0\nmse = 0.001\nsamples = 5\nvalue = 0.93", fillcolor="#e58139ec"] ;
42 -> 44 ;
45 [label="mse = 0.001\nsamples = 3\nvalue = 0.913", fillcolor="#e58139e7"] ;
44 -> 45 ;
46 [label="mse = 0.0\nsamples = 2\nvalue = 0.955", fillcolor="#e58139f3"] ;
44 -> 46 ;
47 [label="mse = 0.0\nsamples = 2\nvalue = 0.807", fillcolor="#e58139cb"] ;
41 -> 47 ;
48 [label="mse = 0.008\nsamples = 3\nvalue = 0.72", fillcolor="#e58139b3"] ;
40 -> 48 ;
49 [label="AtomicVolume_1 <= 12.153\nmse = 0.011\nsamples = 60\nvalue = 0.939", fillcolor="#e58139ee"] ;
31 -> 49 ;
50 [label="reactor_number <= 4.0\nmse = 0.024\nsamples = 10\nvalue = 0.821", fillcolor="#e58139ce"] ;
49 -> 50 ;
51 [label="mse = 0.0\nsamples = 2\nvalue = 0.98", fillcolor="#e58139fa"] ;
50 -> 51 ;
52 [label="temperature <= 375.0\nmse = 0.022\nsamples = 8\nvalue = 0.773", fillcolor="#e58139c1"] ;
50 -> 52 ;
53 [label="M1M2_ratio <= 66.667\nmse = 0.013\nsamples = 5\nvalue = 0.685", fillcolor="#e58139a9"] ;
52 -> 53 ;
54 [label="mse = 0.0\nsamples = 2\nvalue = 0.531", fillcolor="#e581397f"] ;
53 -> 54 ;
55 [label="mse = 0.002\nsamples = 3\nvalue = 0.763", fillcolor="#e58139be"] ;
53 -> 55 ;
56 [label="mse = 0.006\nsamples = 3\nvalue = 0.905", fillcolor="#e58139e5"] ;
52 -> 56 ;
57 [label="temperature <= 375.0\nmse = 0.007\nsamples = 50\nvalue = 0.959", fillcolor="#e58139f4"] ;
49 -> 57 ;
58 [label="M1M2_ratio <= 66.667\nmse = 0.016\nsamples = 20\nvalue = 0.921", fillcolor="#e58139e9"] ;
57 -> 58 ;
59 [label="HeatCapacityMass_1 <= 0.392\nmse = 0.036\nsamples = 6\nvalue = 0.814", fillcolor="#e58139cc"] ;
58 -> 59 ;
60 [label="mse = 0.001\nsamples = 3\nvalue = 0.977", fillcolor="#e58139f9"] ;
59 -> 60 ;
61 [label="mse = 0.001\nsamples = 3\nvalue = 0.597", fillcolor="#e5813991"] ;
59 -> 61 ;
62 [label="reactor_number <= 10.5\nmse = 0.002\nsamples = 14\nvalue = 0.96", fillcolor="#e58139f4"] ;
58 -> 62 ;
63 [label="MendeleevNumber_1 <= 52.0\nmse = 0.0\nsamples = 7\nvalue = 0.995", fillcolor="#e58139fe"] ;
62 -> 63 ;
64 [label="ammonia_concentration <= 1.059\nmse = 0.0\nsamples = 5\nvalue = 0.999", fillcolor="#e58139ff"] ;
63 -> 64 ;
65 [label="mse = 0.0\nsamples = 3\nvalue = 0.999", fillcolor="#e58139ff"] ;
64 -> 65 ;
66 [label="mse = 0.0\nsamples = 2\nvalue = 0.997", fillcolor="#e58139fe"] ;
64 -> 66 ;
67 [label="mse = 0.0\nsamples = 2\nvalue = 0.987", fillcolor="#e58139fc"] ;
63 -> 67 ;
68 [label="GSenergy_pa_1 <= -7.653\nmse = 0.002\nsamples = 7\nvalue = 0.912", fillcolor="#e58139e7"] ;
62 -> 68 ;
69 [label="mse = 0.001\nsamples = 2\nvalue = 0.869", fillcolor="#e58139db"] ;
68 -> 69 ;
70 [label="ammonia_concentration <= 1.077\nmse = 0.0\nsamples = 5\nvalue = 0.938", fillcolor="#e58139ee"] ;
68 -> 70 ;
71 [label="mse = 0.0\nsamples = 3\nvalue = 0.929", fillcolor="#e58139ec"] ;
70 -> 71 ;
72 [label="mse = 0.0\nsamples = 2\nvalue = 0.952", fillcolor="#e58139f2"] ;
70 -> 72 ;
73 [label="reactor_number <= 10.5\nmse = 0.001\nsamples = 30\nvalue = 0.977", fillcolor="#e58139f9"] ;
57 -> 73 ;
74 [label="Atomic Number_1 <= 20.5\nmse = 0.0\nsamples = 18\nvalue = 0.993", fillcolor="#e58139fd"] ;
73 -> 74 ;
75 [label="mse = 0.0\nsamples = 3\nvalue = 0.967", fillcolor="#e58139f6"] ;
74 -> 75 ;
76 [label="ElectronAffinity_1 <= 23.85\nmse = 0.0\nsamples = 15\nvalue = 0.995", fillcolor="#e58139fe"] ;
74 -> 76 ;
77 [label="space_velocity <= 2253.018\nmse = 0.0\nsamples = 10\nvalue = 0.999", fillcolor="#e58139ff"] ;
76 -> 77 ;
78 [label="Mn Loading <= 0.01\nmse = 0.0\nsamples = 6\nvalue = 0.998", fillcolor="#e58139fe"] ;
77 -> 78 ;
79 [label="mse = 0.0\nsamples = 3\nvalue = 0.994", fillcolor="#e58139fd"] ;
78 -> 79 ;
80 [label="mse = 0.0\nsamples = 3\nvalue = 0.999", fillcolor="#e58139ff"] ;
78 -> 80 ;
81 [label="mse = 0.0\nsamples = 4\nvalue = 1.0", fillcolor="#e58139ff"] ;
77 -> 81 ;
82 [label="temperature <= 425.0\nmse = 0.0\nsamples = 5\nvalue = 0.986", fillcolor="#e58139fb"] ;
76 -> 82 ;
83 [label="mse = 0.0\nsamples = 3\nvalue = 0.997", fillcolor="#e58139fe"] ;
82 -> 83 ;
84 [label="mse = 0.0\nsamples = 2\nvalue = 0.979", fillcolor="#e58139f9"] ;
82 -> 84 ;
85 [label="NUnfilled_1 <= 4.0\nmse = 0.001\nsamples = 12\nvalue = 0.952", fillcolor="#e58139f2"] ;
73 -> 85 ;
86 [label="Ru Loading <= 0.015\nmse = 0.001\nsamples = 8\nvalue = 0.97", fillcolor="#e58139f7"] ;
85 -> 86 ;
87 [label="mse = 0.001\nsamples = 2\nvalue = 0.932", fillcolor="#e58139ed"] ;
86 -> 87 ;
88 [label="AtomicWeight_1 <= 73.249\nmse = 0.0\nsamples = 6\nvalue = 0.989", fillcolor="#e58139fc"] ;
86 -> 88 ;
89 [label="mse = 0.0\nsamples = 3\nvalue = 0.996", fillcolor="#e58139fe"] ;
88 -> 89 ;
90 [label="mse = 0.0\nsamples = 3\nvalue = 0.977", fillcolor="#e58139f9"] ;
88 -> 90 ;
91 [label="space_velocity <= 2550.305\nmse = 0.0\nsamples = 4\nvalue = 0.924", fillcolor="#e58139ea"] ;
85 -> 91 ;
92 [label="mse = 0.0\nsamples = 2\nvalue = 0.907", fillcolor="#e58139e6"] ;
91 -> 92 ;
93 [label="mse = 0.0\nsamples = 2\nvalue = 0.94", fillcolor="#e58139ef"] ;
91 -> 93 ;
94 [label="temperature <= 425.0\nmse = 0.098\nsamples = 31\nvalue = 0.53", fillcolor="#e581397f"] ;
30 -> 94 ;
95 [label="BoilingT_1 <= 1508.5\nmse = 0.057\nsamples = 24\nvalue = 0.409", fillcolor="#e581395e"] ;
94 -> 95 ;
96 [label="temperature <= 375.0\nmse = 0.063\nsamples = 8\nvalue = 0.61", fillcolor="#e5813995"] ;
95 -> 96 ;
97 [label="temperature <= 325.0\nmse = 0.025\nsamples = 5\nvalue = 0.488", fillcolor="#e5813974"] ;
96 -> 97 ;
98 [label="mse = 0.007\nsamples = 2\nvalue = 0.356", fillcolor="#e5813950"] ;
97 -> 98 ;
99 [label="mse = 0.013\nsamples = 3\nvalue = 0.594", fillcolor="#e5813991"] ;
97 -> 99 ;
100 [label="mse = 0.0\nsamples = 3\nvalue = 0.977", fillcolor="#e58139f9"] ;
96 -> 100 ;
101 [label="ammonia_concentration <= 1.042\nmse = 0.017\nsamples = 16\nvalue = 0.294", fillcolor="#e581393f"] ;
95 -> 101 ;
102 [label="space_velocity <= 2381.636\nmse = 0.018\nsamples = 9\nvalue = 0.34", fillcolor="#e581394b"] ;
101 -> 102 ;
103 [label="space_velocity <= 2223.555\nmse = 0.012\nsamples = 6\nvalue = 0.295", fillcolor="#e581393f"] ;
102 -> 103 ;
104 [label="mse = 0.004\nsamples = 2\nvalue = 0.363", fillcolor="#e5813952"] ;
103 -> 104 ;
105 [label="ammonia_concentration <= 1.023\nmse = 0.012\nsamples = 4\nvalue = 0.277", fillcolor="#e581393a"] ;
103 -> 105 ;
106 [label="mse = 0.015\nsamples = 2\nvalue = 0.277", fillcolor="#e581393a"] ;
105 -> 106 ;
107 [label="mse = 0.004\nsamples = 2\nvalue = 0.278", fillcolor="#e581393a"] ;
105 -> 107 ;
108 [label="mse = 0.017\nsamples = 3\nvalue = 0.454", fillcolor="#e581396a"] ;
102 -> 108 ;
109 [label="ammonia_concentration <= 1.048\nmse = 0.002\nsamples = 7\nvalue = 0.201", fillcolor="#e5813925"] ;
101 -> 109 ;
110 [label="mse = 0.0\nsamples = 2\nvalue = 0.148", fillcolor="#e5813917"] ;
109 -> 110 ;
111 [label="temperature <= 325.0\nmse = 0.001\nsamples = 5\nvalue = 0.222", fillcolor="#e581392b"] ;
109 -> 111 ;
112 [label="mse = 0.0\nsamples = 2\nvalue = 0.199", fillcolor="#e5813925"] ;
111 -> 112 ;
113 [label="mse = 0.001\nsamples = 3\nvalue = 0.237", fillcolor="#e581392f"] ;
111 -> 113 ;
114 [label="AtomicVolume_1 <= 20.644\nmse = 0.046\nsamples = 7\nvalue = 0.892", fillcolor="#e58139e2"] ;
94 -> 114 ;
115 [label="reactor_number <= 2.5\nmse = 0.002\nsamples = 5\nvalue = 0.968", fillcolor="#e58139f6"] ;
114 -> 115 ;
116 [label="mse = 0.0\nsamples = 3\nvalue = 0.983", fillcolor="#e58139fa"] ;
115 -> 116 ;
117 [label="mse = 0.007\nsamples = 2\nvalue = 0.915", fillcolor="#e58139e8"] ;
115 -> 117 ;
118 [label="mse = 0.1\nsamples = 2\nvalue = 0.55", fillcolor="#e5813984"] ;
114 -> 118 ;
}