digraph Tree {
node [shape=box, style="filled, rounded", color="black", fontname=helvetica] ;
edge [fontname=helvetica] ;
0 [label="IonizationEnergies_2_1 <= 18.52\nmse = 0.004\nsamples = 57\nvalue = 0.971", fillcolor="#e58139dd"] ;
1 [label="AtomicVolume_1 <= 17.241\nmse = 0.001\nsamples = 50\nvalue = 0.981", fillcolor="#e58139ea"] ;
0 -> 1 [labeldistance=2.5, labelangle=45, headlabel="True"] ;
2 [label="Ru Loading <= 0.025\nmse = 0.001\nsamples = 21\nvalue = 0.966", fillcolor="#e58139d8"] ;
1 -> 2 ;
3 [label="reactor_number <= 13.5\nmse = 0.0\nsamples = 11\nvalue = 0.983", fillcolor="#e58139eb"] ;
2 -> 3 ;
4 [label="Ru Loading <= 0.015\nmse = 0.0\nsamples = 8\nvalue = 0.995", fillcolor="#e58139fa"] ;
3 -> 4 ;
5 [label="mse = 0.0\nsamples = 4\nvalue = 1.0", fillcolor="#e58139ff"] ;
4 -> 5 ;
6 [label="mse = 0.0\nsamples = 4\nvalue = 0.99", fillcolor="#e58139f3"] ;
4 -> 6 ;
7 [label="mse = 0.0\nsamples = 3\nvalue = 0.955", fillcolor="#e58139cc"] ;
3 -> 7 ;
8 [label="CovalentRadius_1 <= 131.5\nmse = 0.0\nsamples = 10\nvalue = 0.952", fillcolor="#e58139c8"] ;
2 -> 8 ;
9 [label="mse = 0.0\nsamples = 4\nvalue = 0.935", fillcolor="#e58139b5"] ;
8 -> 9 ;
10 [label="NUnfilled_1 <= 5.5\nmse = 0.0\nsamples = 6\nvalue = 0.957", fillcolor="#e58139ce"] ;
8 -> 10 ;
11 [label="mse = 0.0\nsamples = 3\nvalue = 0.96", fillcolor="#e58139d1"] ;
10 -> 11 ;
12 [label="mse = 0.0\nsamples = 3\nvalue = 0.954", fillcolor="#e58139ca"] ;
10 -> 12 ;
13 [label="FusionEnthalpy_1 <= 12.745\nmse = 0.0\nsamples = 29\nvalue = 0.992", fillcolor="#e58139f6"] ;
1 -> 13 ;
14 [label="ammonia_concentration <= 0.016\nmse = 0.0\nsamples = 19\nvalue = 0.988", fillcolor="#e58139f1"] ;
13 -> 14 ;
15 [label="FusionEnthalpy_1 <= 9.965\nmse = 0.0\nsamples = 14\nvalue = 0.982", fillcolor="#e58139ea"] ;
14 -> 15 ;
16 [label="space_velocity <= 2282.112\nmse = 0.0\nsamples = 11\nvalue = 0.988", fillcolor="#e58139f1"] ;
15 -> 16 ;
17 [label="HeatCapacityMolar_1 <= 25.399\nmse = 0.0\nsamples = 6\nvalue = 0.996", fillcolor="#e58139fb"] ;
16 -> 17 ;
18 [label="mse = 0.0\nsamples = 3\nvalue = 1.0", fillcolor="#e58139ff"] ;
17 -> 18 ;
19 [label="mse = 0.0\nsamples = 3\nvalue = 0.991", fillcolor="#e58139f4"] ;
17 -> 19 ;
20 [label="mse = 0.0\nsamples = 5\nvalue = 0.978", fillcolor="#e58139e5"] ;
16 -> 20 ;
21 [label="mse = 0.0\nsamples = 3\nvalue = 0.958", fillcolor="#e58139cf"] ;
15 -> 21 ;
22 [label="mse = 0.0\nsamples = 5\nvalue = 1.0", fillcolor="#e58139ff"] ;
14 -> 22 ;
23 [label="ammonia_concentration <= 0.01\nmse = 0.0\nsamples = 10\nvalue = 0.998", fillcolor="#e58139fd"] ;
13 -> 23 ;
24 [label="ammonia_concentration <= 0.01\nmse = 0.0\nsamples = 7\nvalue = 1.0", fillcolor="#e58139ff"] ;
23 -> 24 ;
25 [label="mse = 0.0\nsamples = 4\nvalue = 1.0", fillcolor="#e58139ff"] ;
24 -> 25 ;
26 [label="mse = 0.0\nsamples = 3\nvalue = 0.999", fillcolor="#e58139fe"] ;
24 -> 26 ;
27 [label="mse = 0.0\nsamples = 3\nvalue = 0.993", fillcolor="#e58139f8"] ;
23 -> 27 ;
28 [label="reactor_number <= 2.0\nmse = 0.031\nsamples = 7\nvalue = 0.857", fillcolor="#e581395b"] ;
0 -> 28 [labeldistance=2.5, labelangle=-45, headlabel="False"] ;
29 [label="mse = 0.0\nsamples = 3\nvalue = 0.989", fillcolor="#e58139f2"] ;
28 -> 29 ;
30 [label="mse = 0.033\nsamples = 4\nvalue = 0.778", fillcolor="#e5813900"] ;
28 -> 30 ;
}