digraph Tree {
node [shape=box, style="filled, rounded", color="black", fontname=helvetica] ;
edge [fontname=helvetica] ;
0 [label="Electronegativity_1 <= 1.335\nmse = 0.027\nsamples = 105\nvalue = 0.36", fillcolor="#e5813972"] ;
1 [label="ammonia_concentration <= 0.014\nmse = 0.016\nsamples = 48\nvalue = 0.494", fillcolor="#e58139ab"] ;
0 -> 1 [labeldistance=2.5, labelangle=45, headlabel="True"] ;
2 [label="Ru Loading <= 0.025\nmse = 0.009\nsamples = 35\nvalue = 0.44", fillcolor="#e5813994"] ;
1 -> 2 ;
3 [label="space_velocity <= 2269.907\nmse = 0.004\nsamples = 19\nvalue = 0.356", fillcolor="#e5813971"] ;
2 -> 3 ;
4 [label="IonizationEnergies_1_1 <= 7.236\nmse = 0.001\nsamples = 11\nvalue = 0.403", fillcolor="#e5813985"] ;
3 -> 4 ;
5 [label="mse = 0.001\nsamples = 5\nvalue = 0.369", fillcolor="#e5813976"] ;
4 -> 5 ;
6 [label="mse = 0.0\nsamples = 6\nvalue = 0.423", fillcolor="#e581398d"] ;
4 -> 6 ;
7 [label="HeatCapacityMolar_1 <= 25.299\nmse = 0.0\nsamples = 8\nvalue = 0.294", fillcolor="#e5813956"] ;
3 -> 7 ;
8 [label="mse = 0.001\nsamples = 3\nvalue = 0.307", fillcolor="#e581395c"] ;
7 -> 8 ;
9 [label="mse = 0.0\nsamples = 5\nvalue = 0.288", fillcolor="#e5813954"] ;
7 -> 9 ;
10 [label="reactor_number <= 10.0\nmse = 0.002\nsamples = 16\nvalue = 0.518", fillcolor="#e58139b6"] ;
2 -> 10 ;
11 [label="IonizationEnergies_8_1 <= 197.48\nmse = 0.002\nsamples = 11\nvalue = 0.525", fillcolor="#e58139b8"] ;
10 -> 11 ;
12 [label="mse = 0.001\nsamples = 5\nvalue = 0.529", fillcolor="#e58139ba"] ;
11 -> 12 ;
13 [label="mse = 0.002\nsamples = 6\nvalue = 0.521", fillcolor="#e58139b7"] ;
11 -> 13 ;
14 [label="mse = 0.002\nsamples = 5\nvalue = 0.505", fillcolor="#e58139b0"] ;
10 -> 14 ;
15 [label="Ru Loading <= 0.035\nmse = 0.002\nsamples = 13\nvalue = 0.651", fillcolor="#e58139ee"] ;
1 -> 15 ;
16 [label="space_velocity <= 2277.165\nmse = 0.001\nsamples = 10\nvalue = 0.634", fillcolor="#e58139e7"] ;
15 -> 16 ;
17 [label="mse = 0.0\nsamples = 5\nvalue = 0.613", fillcolor="#e58139de"] ;
16 -> 17 ;
18 [label="mse = 0.001\nsamples = 5\nvalue = 0.672", fillcolor="#e58139f7"] ;
16 -> 18 ;
19 [label="mse = 0.001\nsamples = 3\nvalue = 0.691", fillcolor="#e58139ff"] ;
15 -> 19 ;
20 [label="space_velocity <= 2397.476\nmse = 0.011\nsamples = 57\nvalue = 0.256", fillcolor="#e5813946"] ;
0 -> 20 [labeldistance=2.5, labelangle=-45, headlabel="False"] ;
21 [label="IonizationEnergies_8_1 <= 164.0\nmse = 0.007\nsamples = 51\nvalue = 0.23", fillcolor="#e581393b"] ;
20 -> 21 ;
22 [label="space_velocity <= 2230.875\nmse = 0.001\nsamples = 22\nvalue = 0.289", fillcolor="#e5813954"] ;
21 -> 22 ;
23 [label="NdUnfilled_1 <= 5.5\nmse = 0.001\nsamples = 14\nvalue = 0.275", fillcolor="#e581394e"] ;
22 -> 23 ;
24 [label="Ru Loading <= 0.025\nmse = 0.001\nsamples = 11\nvalue = 0.283", fillcolor="#e5813952"] ;
23 -> 24 ;
25 [label="mse = 0.0\nsamples = 8\nvalue = 0.278", fillcolor="#e581394f"] ;
24 -> 25 ;
26 [label="mse = 0.002\nsamples = 3\nvalue = 0.306", fillcolor="#e581395b"] ;
24 -> 26 ;
27 [label="mse = 0.0\nsamples = 3\nvalue = 0.254", fillcolor="#e5813945"] ;
23 -> 27 ;
28 [label="Ni Loading <= 0.015\nmse = 0.0\nsamples = 8\nvalue = 0.308", fillcolor="#e581395c"] ;
22 -> 28 ;
29 [label="mse = 0.0\nsamples = 5\nvalue = 0.309", fillcolor="#e581395d"] ;
28 -> 29 ;
30 [label="mse = 0.0\nsamples = 3\nvalue = 0.306", fillcolor="#e581395b"] ;
28 -> 30 ;
31 [label="ammonia_concentration <= 0.01\nmse = 0.006\nsamples = 29\nvalue = 0.183", fillcolor="#e5813927"] ;
21 -> 31 ;
32 [label="space_velocity <= 2070.493\nmse = 0.007\nsamples = 12\nvalue = 0.14", fillcolor="#e5813915"] ;
31 -> 32 ;
33 [label="mse = 0.009\nsamples = 5\nvalue = 0.249", fillcolor="#e5813943"] ;
32 -> 33 ;
34 [label="IonizationEnergies_1_1 <= 7.246\nmse = 0.0\nsamples = 7\nvalue = 0.101", fillcolor="#e5813904"] ;
32 -> 34 ;
35 [label="mse = 0.0\nsamples = 3\nvalue = 0.091", fillcolor="#e5813900"] ;
34 -> 35 ;
36 [label="mse = 0.0\nsamples = 4\nvalue = 0.106", fillcolor="#e5813906"] ;
34 -> 36 ;
37 [label="ZungerPP-r_sigma_1 <= 2.33\nmse = 0.003\nsamples = 17\nvalue = 0.221", fillcolor="#e5813937"] ;
31 -> 37 ;
38 [label="Cu Loading <= 0.025\nmse = 0.001\nsamples = 12\nvalue = 0.183", fillcolor="#e5813927"] ;
37 -> 38 ;
39 [label="MendeleevNumber_1 <= 58.0\nmse = 0.001\nsamples = 8\nvalue = 0.172", fillcolor="#e5813923"] ;
38 -> 39 ;
40 [label="mse = 0.001\nsamples = 4\nvalue = 0.19", fillcolor="#e581392a"] ;
39 -> 40 ;
41 [label="mse = 0.001\nsamples = 4\nvalue = 0.155", fillcolor="#e581391b"] ;
39 -> 41 ;
42 [label="mse = 0.0\nsamples = 4\nvalue = 0.201", fillcolor="#e581392f"] ;
38 -> 42 ;
43 [label="mse = 0.0\nsamples = 5\nvalue = 0.275", fillcolor="#e581394e"] ;
37 -> 43 ;
44 [label="ammonia_concentration <= 0.011\nmse = 0.001\nsamples = 6\nvalue = 0.455", fillcolor="#e581399b"] ;
20 -> 44 ;
45 [label="mse = 0.001\nsamples = 3\nvalue = 0.472", fillcolor="#e58139a2"] ;
44 -> 45 ;
46 [label="mse = 0.0\nsamples = 3\nvalue = 0.431", fillcolor="#e5813990"] ;
44 -> 46 ;
}