digraph Tree {
node [shape=box, style="filled, rounded", color="black", fontname=helvetica] ;
edge [fontname=helvetica] ;
0 [label="In Loading <= 0.015\nmse = 0.032\nsamples = 80\nvalue = 0.905", fillcolor="#e58139da"] ;
1 [label="Cu Loading <= 0.015\nmse = 0.009\nsamples = 73\nvalue = 0.946", fillcolor="#e58139ea"] ;
0 -> 1 [labeldistance=2.5, labelangle=45, headlabel="True"] ;
2 [label="IonizationEnergies_3_1 <= 29.495\nmse = 0.001\nsamples = 70\nvalue = 0.967", fillcolor="#e58139f2"] ;
1 -> 2 ;
3 [label="ammonia_concentration <= 0.01\nmse = 0.0\nsamples = 27\nvalue = 0.983", fillcolor="#e58139f9"] ;
2 -> 3 ;
4 [label="ammonia_concentration <= 0.01\nmse = 0.0\nsamples = 13\nvalue = 0.997", fillcolor="#e58139fe"] ;
3 -> 4 ;
5 [label="space_velocity <= 2277.742\nmse = 0.0\nsamples = 8\nvalue = 1.0", fillcolor="#e58139ff"] ;
4 -> 5 ;
6 [label="mse = 0.0\nsamples = 5\nvalue = 1.0", fillcolor="#e58139ff"] ;
5 -> 6 ;
7 [label="mse = 0.0\nsamples = 3\nvalue = 0.998", fillcolor="#e58139fe"] ;
5 -> 7 ;
8 [label="mse = 0.0\nsamples = 5\nvalue = 0.992", fillcolor="#e58139fc"] ;
4 -> 8 ;
9 [label="BoilingT_1 <= 3360.5\nmse = 0.0\nsamples = 14\nvalue = 0.968", fillcolor="#e58139f3"] ;
3 -> 9 ;
10 [label="mse = 0.0\nsamples = 3\nvalue = 0.952", fillcolor="#e58139ed"] ;
9 -> 10 ;
11 [label="space_velocity <= 2128.441\nmse = 0.0\nsamples = 11\nvalue = 0.973", fillcolor="#e58139f5"] ;
9 -> 11 ;
12 [label="mse = 0.0\nsamples = 7\nvalue = 0.967", fillcolor="#e58139f3"] ;
11 -> 12 ;
13 [label="mse = 0.0\nsamples = 4\nvalue = 0.983", fillcolor="#e58139f8"] ;
11 -> 13 ;
14 [label="space_velocity <= 2223.85\nmse = 0.001\nsamples = 43\nvalue = 0.96", fillcolor="#e58139f0"] ;
2 -> 14 ;
15 [label="space_velocity <= 2112.6\nmse = 0.0\nsamples = 27\nvalue = 0.954", fillcolor="#e58139ed"] ;
14 -> 15 ;
16 [label="space_velocity <= 2101.443\nmse = 0.0\nsamples = 20\nvalue = 0.96", fillcolor="#e58139f0"] ;
15 -> 16 ;
17 [label="NUnfilled_1 <= 1.5\nmse = 0.0\nsamples = 17\nvalue = 0.956", fillcolor="#e58139ee"] ;
16 -> 17 ;
18 [label="mse = 0.0\nsamples = 4\nvalue = 0.969", fillcolor="#e58139f3"] ;
17 -> 18 ;
19 [label="HeatCapacityMolar_1 <= 24.71\nmse = 0.0\nsamples = 13\nvalue = 0.953", fillcolor="#e58139ed"] ;
17 -> 19 ;
20 [label="mse = 0.0\nsamples = 4\nvalue = 0.955", fillcolor="#e58139ee"] ;
19 -> 20 ;
21 [label="reactor_number <= 0.5\nmse = 0.0\nsamples = 9\nvalue = 0.952", fillcolor="#e58139ed"] ;
19 -> 21 ;
22 [label="mse = 0.0\nsamples = 3\nvalue = 0.953", fillcolor="#e58139ed"] ;
21 -> 22 ;
23 [label="mse = 0.0\nsamples = 6\nvalue = 0.951", fillcolor="#e58139ec"] ;
21 -> 23 ;
24 [label="mse = 0.0\nsamples = 3\nvalue = 0.996", fillcolor="#e58139fd"] ;
16 -> 24 ;
25 [label="NValence_1 <= 4.0\nmse = 0.0\nsamples = 7\nvalue = 0.938", fillcolor="#e58139e7"] ;
15 -> 25 ;
26 [label="mse = 0.0\nsamples = 4\nvalue = 0.949", fillcolor="#e58139eb"] ;
25 -> 26 ;
27 [label="mse = 0.0\nsamples = 3\nvalue = 0.917", fillcolor="#e58139df"] ;
25 -> 27 ;
28 [label="space_velocity <= 2309.624\nmse = 0.001\nsamples = 16\nvalue = 0.97", fillcolor="#e58139f4"] ;
14 -> 28 ;
29 [label="ElectronAffinity_1 <= 56.0\nmse = 0.0\nsamples = 8\nvalue = 0.991", fillcolor="#e58139fb"] ;
28 -> 29 ;
30 [label="mse = 0.0\nsamples = 4\nvalue = 0.994", fillcolor="#e58139fd"] ;
29 -> 30 ;
31 [label="mse = 0.0\nsamples = 4\nvalue = 0.984", fillcolor="#e58139f9"] ;
29 -> 31 ;
32 [label="Ru Loading <= 0.02\nmse = 0.0\nsamples = 8\nvalue = 0.956", fillcolor="#e58139ee"] ;
28 -> 32 ;
33 [label="mse = 0.0\nsamples = 4\nvalue = 0.953", fillcolor="#e58139ed"] ;
32 -> 33 ;
34 [label="mse = 0.0\nsamples = 4\nvalue = 0.959", fillcolor="#e58139ef"] ;
32 -> 34 ;
35 [label="mse = 0.006\nsamples = 3\nvalue = 0.545", fillcolor="#e5813951"] ;
1 -> 35 ;
36 [label="space_velocity <= 2230.875\nmse = 0.0\nsamples = 7\nvalue = 0.335", fillcolor="#e5813900"] ;
0 -> 36 [labeldistance=2.5, labelangle=-45, headlabel="False"] ;
37 [label="mse = 0.0\nsamples = 4\nvalue = 0.335", fillcolor="#e5813900"] ;
36 -> 37 ;
38 [label="mse = 0.0\nsamples = 3\nvalue = 0.337", fillcolor="#e5813901"] ;
36 -> 38 ;
}