digraph Tree {
node [shape=box, style="filled, rounded", color="black", fontname=helvetica] ;
edge [fontname=helvetica] ;
0 [label="Column_1 <= 5.0\nmse = 0.073\nsamples = 95\nvalue = 0.63", fillcolor="#e581398d"] ;
1 [label="Mg Loading <= 0.015\nmse = 0.03\nsamples = 56\nvalue = 0.808", fillcolor="#e58139c8"] ;
0 -> 1 [labeldistance=2.5, labelangle=45, headlabel="True"] ;
2 [label="Ca Loading <= 0.025\nmse = 0.02\nsamples = 49\nvalue = 0.844", fillcolor="#e58139d4"] ;
1 -> 2 ;
3 [label="Sc Loading <= 0.015\nmse = 0.009\nsamples = 46\nvalue = 0.873", fillcolor="#e58139de"] ;
2 -> 3 ;
4 [label="ammonia_concentration <= 0.01\nmse = 0.006\nsamples = 42\nvalue = 0.892", fillcolor="#e58139e4"] ;
3 -> 4 ;
5 [label="Ru Loading <= 0.015\nmse = 0.006\nsamples = 13\nvalue = 0.848", fillcolor="#e58139d6"] ;
4 -> 5 ;
6 [label="mse = 0.002\nsamples = 5\nvalue = 0.771", fillcolor="#e58139bc"] ;
5 -> 6 ;
7 [label="FusionEnthalpy_1 <= 11.29\nmse = 0.004\nsamples = 8\nvalue = 0.875", fillcolor="#e58139df"] ;
5 -> 7 ;
8 [label="mse = 0.008\nsamples = 3\nvalue = 0.863", fillcolor="#e58139da"] ;
7 -> 8 ;
9 [label="mse = 0.001\nsamples = 5\nvalue = 0.885", fillcolor="#e58139e2"] ;
7 -> 9 ;
10 [label="MendeleevNumber_1 <= 11.5\nmse = 0.003\nsamples = 29\nvalue = 0.921", fillcolor="#e58139ee"] ;
4 -> 10 ;
11 [label="Column_1 <= 2.5\nmse = 0.002\nsamples = 7\nvalue = 0.841", fillcolor="#e58139d3"] ;
10 -> 11 ;
12 [label="mse = 0.004\nsamples = 4\nvalue = 0.864", fillcolor="#e58139db"] ;
11 -> 12 ;
13 [label="mse = 0.0\nsamples = 3\nvalue = 0.818", fillcolor="#e58139cc"] ;
11 -> 13 ;
14 [label="Y Loading <= 0.025\nmse = 0.001\nsamples = 22\nvalue = 0.946", fillcolor="#e58139f6"] ;
10 -> 14 ;
15 [label="IonizationEnergies_4_1 <= 84.931\nmse = 0.0\nsamples = 18\nvalue = 0.958", fillcolor="#e58139fa"] ;
14 -> 15 ;
16 [label="ammonia_concentration <= 0.013\nmse = 0.0\nsamples = 13\nvalue = 0.952", fillcolor="#e58139f8"] ;
15 -> 16 ;
17 [label="mse = 0.0\nsamples = 6\nvalue = 0.945", fillcolor="#e58139f6"] ;
16 -> 17 ;
18 [label="Ru Loading <= 0.03\nmse = 0.0\nsamples = 7\nvalue = 0.957", fillcolor="#e58139fa"] ;
16 -> 18 ;
19 [label="mse = 0.0\nsamples = 3\nvalue = 0.959", fillcolor="#e58139fb"] ;
18 -> 19 ;
20 [label="mse = 0.0\nsamples = 4\nvalue = 0.955", fillcolor="#e58139f9"] ;
18 -> 20 ;
21 [label="mse = 0.0\nsamples = 5\nvalue = 0.972", fillcolor="#e58139ff"] ;
15 -> 21 ;
22 [label="mse = 0.0\nsamples = 4\nvalue = 0.886", fillcolor="#e58139e2"] ;
14 -> 22 ;
23 [label="mse = 0.004\nsamples = 4\nvalue = 0.689", fillcolor="#e58139a0"] ;
3 -> 23 ;
24 [label="mse = 0.0\nsamples = 3\nvalue = 0.417", fillcolor="#e5813946"] ;
2 -> 24 ;
25 [label="Mg Loading <= 0.025\nmse = 0.0\nsamples = 7\nvalue = 0.486", fillcolor="#e581395d"] ;
1 -> 25 ;
26 [label="mse = 0.001\nsamples = 4\nvalue = 0.483", fillcolor="#e581395c"] ;
25 -> 26 ;
27 [label="mse = 0.0\nsamples = 3\nvalue = 0.491", fillcolor="#e581395e"] ;
25 -> 27 ;
28 [label="Ru Loading <= 0.025\nmse = 0.027\nsamples = 39\nvalue = 0.378", fillcolor="#e5813939"] ;
0 -> 28 [labeldistance=2.5, labelangle=-45, headlabel="False"] ;
29 [label="ammonia_concentration <= 0.011\nmse = 0.009\nsamples = 25\nvalue = 0.304", fillcolor="#e5813920"] ;
28 -> 29 ;
30 [label="reactor_number <= 12.5\nmse = 0.007\nsamples = 22\nvalue = 0.286", fillcolor="#e581391a"] ;
29 -> 30 ;
31 [label="space_velocity <= 2131.556\nmse = 0.004\nsamples = 17\nvalue = 0.259", fillcolor="#e5813911"] ;
30 -> 31 ;
32 [label="mse = 0.004\nsamples = 5\nvalue = 0.31", fillcolor="#e5813922"] ;
31 -> 32 ;
33 [label="ammonia_concentration <= 0.01\nmse = 0.003\nsamples = 12\nvalue = 0.238", fillcolor="#e581390a"] ;
31 -> 33 ;
34 [label="CovalentRadius_1 <= 135.5\nmse = 0.001\nsamples = 7\nvalue = 0.255", fillcolor="#e5813910"] ;
33 -> 34 ;
35 [label="mse = 0.002\nsamples = 4\nvalue = 0.252", fillcolor="#e581390e"] ;
34 -> 35 ;
36 [label="mse = 0.0\nsamples = 3\nvalue = 0.257", fillcolor="#e5813910"] ;
34 -> 36 ;
37 [label="mse = 0.004\nsamples = 5\nvalue = 0.208", fillcolor="#e5813900"] ;
33 -> 37 ;
38 [label="mse = 0.006\nsamples = 5\nvalue = 0.367", fillcolor="#e5813935"] ;
30 -> 38 ;
39 [label="mse = 0.001\nsamples = 3\nvalue = 0.469", fillcolor="#e5813957"] ;
29 -> 39 ;
40 [label="MeltingT_1 <= 1623.5\nmse = 0.031\nsamples = 14\nvalue = 0.507", fillcolor="#e5813964"] ;
28 -> 40 ;
41 [label="mse = 0.022\nsamples = 5\nvalue = 0.326", fillcolor="#e5813927"] ;
40 -> 41 ;
42 [label="Column_1 <= 8.0\nmse = 0.001\nsamples = 9\nvalue = 0.624", fillcolor="#e581398b"] ;
40 -> 42 ;
43 [label="mse = 0.001\nsamples = 3\nvalue = 0.664", fillcolor="#e5813998"] ;
42 -> 43 ;
44 [label="ammonia_concentration <= 0.01\nmse = 0.0\nsamples = 6\nvalue = 0.601", fillcolor="#e5813983"] ;
42 -> 44 ;
45 [label="mse = 0.0\nsamples = 3\nvalue = 0.603", fillcolor="#e5813984"] ;
44 -> 45 ;
46 [label="mse = 0.0\nsamples = 3\nvalue = 0.597", fillcolor="#e5813982"] ;
44 -> 46 ;
}